Language model created by QuickLM on Sat Jan 30 03:12:25 EST 2016
Copyright (c) 1996-2010 Carnegie Mellon University and Alexander I. Rudnicky

The model is in standard ARPA format, designed by Doug Paul while he was at MITRE.

The code that was used to produce this language model is available in Open Source.
Please visit http://www.speech.cs.cmu.edu/tools/ for more information

The (fixed) discount mass is 0.5. The backoffs are computed using the ratio method.
This model based on a corpus of 8 sentences and 11 words

\data\
ngram 1=11
ngram 2=17
ngram 3=10

\1-grams:
-0.8129 </s> -0.3010
-0.8129 <s> -0.2185
-1.7160 ALEXA -0.2285
-1.7160 FUCKER -0.2285
-1.7160 JASPER -0.2285
-1.4150 LUCIE -0.2285
-1.7160 MEG -0.2285
-1.7160 OK -0.2840
-1.7160 SHUT -0.2926
-1.7160 STEWIE -0.2285
-1.7160 UP -0.2285

\2-grams:
-1.2041 <s> ALEXA 0.0000
-1.2041 <s> FUCKER 0.0000
-1.2041 <s> JASPER 0.0000
-1.2041 <s> LUCIE 0.0000
-1.2041 <s> MEG 0.0000
-1.2041 <s> OK 0.0000
-1.2041 <s> SHUT 0.0000
-1.2041 <s> STEWIE 0.0000
-0.3010 ALEXA </s> -0.3010
-0.3010 FUCKER </s> -0.3010
-0.3010 JASPER </s> -0.3010
-0.3010 LUCIE </s> -0.3010
-0.3010 MEG </s> -0.3010
-0.3010 OK LUCIE 0.0000
-0.3010 SHUT UP 0.0000
-0.3010 STEWIE </s> -0.3010
-0.3010 UP </s> -0.3010

\3-grams:
-0.3010 <s> ALEXA </s>
-0.3010 <s> FUCKER </s>
-0.3010 <s> JASPER </s>
-0.3010 <s> LUCIE </s>
-0.3010 <s> MEG </s>
-0.3010 <s> OK LUCIE
-0.3010 <s> SHUT UP
-0.3010 <s> STEWIE </s>
-0.3010 OK LUCIE </s>
-0.3010 SHUT UP </s>

\end\
